//Numpy array shape [32, 10]
//Min -1.000000000000
//Max 0.968750000000
//Number of zeros 4

#ifndef W17_H_
#define W17_H_

#ifndef __SYNTHESIS__
weight17_t w17[320];
#else
weight17_t w17[320] = {-1.00000, 0.62500, -1.00000, 0.81250, -0.12500, 0.71875, -1.00000, 0.96875, 0.96875, -0.18750, 0.96875, 0.21875, -0.46875, -0.75000, -1.00000, 0.00000, -0.59375, 0.00000, -1.00000, 0.96875, 0.96875, -1.00000, -1.00000, 0.96875, -1.00000, 0.93750, 0.21875, -1.00000, 0.40625, 0.18750, 0.96875, -0.21875, 0.21875, -0.09375, 0.96875, -1.00000, 0.96875, -1.00000, 0.00000, -1.00000, 0.31250, -0.81250, -1.00000, 0.96875, -0.56250, 0.31250, -1.00000, -0.34375, 0.96875, -0.40625, 0.53125, 0.59375, -0.65625, 0.96875, 0.96875, 0.65625, -1.00000, 0.96875, -1.00000, -0.25000, -0.81250, -1.00000, -0.06250, -1.00000, 0.18750, -1.00000, 0.96875, 0.96875, -1.00000, -1.00000, -0.90625, 0.96875, -1.00000, -1.00000, -0.71875, -0.96875, 0.96875, -0.68750, -0.56250, 0.59375, -1.00000, 0.96875, 0.53125, 0.96875, -0.65625, -1.00000, -1.00000, 0.68750, -1.00000, 0.21875, -0.68750, -1.00000, -1.00000, -1.00000, 0.31250, 0.96875, 0.43750, -0.31250, 0.18750, 0.96875, 0.62500, 0.06250, 0.90625, 0.96875, -1.00000, 0.96875, 0.96875, -1.00000, 0.00000, -0.43750, 0.84375, -1.00000, 0.68750, -1.00000, -1.00000, 0.78125, 0.96875, 0.96875, 0.25000, -1.00000, 0.81250, 0.03125, 0.96875, 0.12500, -1.00000, -1.00000, -1.00000, 0.37500, 0.96875, 0.96875, 0.96875, -0.71875, -1.00000, -1.00000, -1.00000, 0.37500, 0.06250, 0.96875, -1.00000, -1.00000, -0.50000, -1.00000, 0.96875, 0.87500, -1.00000, -0.03125, -0.68750, 0.15625, 0.96875, 0.96875, 0.90625, -1.00000, 0.15625, -1.00000, 0.96875, 0.96875, 0.96875, -1.00000, -0.25000, -1.00000, -1.00000, -1.00000, -1.00000, -1.00000, 0.96875, 0.96875, 0.96875, -1.00000, 0.96875, 0.87500, -1.00000, 0.96875, 0.40625, -1.00000, -0.75000, 0.71875, 0.15625, 0.40625, 0.96875, -1.00000, 0.96875, -0.28125, 0.96875, 0.96875, -1.00000, 0.65625, -1.00000, 0.31250, -1.00000, 0.65625, -1.00000, -1.00000, 0.03125, 0.46875, 0.96875, -1.00000, -1.00000, 0.96875, -1.00000, 0.96875, -1.00000, 0.65625, 0.96875, 0.50000, 0.37500, 0.96875, -1.00000, 0.46875, 0.15625, -0.21875, 0.28125, 0.96875, 0.96875, -1.00000, 0.34375, -1.00000, 0.96875, -1.00000, 0.96875, -1.00000, 0.28125, -1.00000, 0.96875, 0.81250, 0.96875, -1.00000, -1.00000, -0.28125, 0.96875, -1.00000, -1.00000, 0.96875, 0.31250, 0.96875, -1.00000, 0.15625, 0.96875, -0.06250, -0.53125, -1.00000, -1.00000, -0.43750, -1.00000, 0.96875, 0.31250, 0.53125, -0.09375, -1.00000, 0.96875, 0.96875, -0.28125, 0.96875, -1.00000, -1.00000, -0.96875, 0.96875, -1.00000, -0.96875, -0.84375, 0.96875, -0.84375, 0.96875, 0.96875, -1.00000, 0.96875, -0.21875, -1.00000, -1.00000, -1.00000, -0.34375, 0.62500, -1.00000, 0.40625, -1.00000, 0.81250, -0.84375, 0.96875, -1.00000, -1.00000, 0.96875, 0.21875, 0.43750, -1.00000, -1.00000, 0.96875, -1.00000, 0.59375, 0.09375, -0.43750, 0.96875, -0.87500, -1.00000, 0.96875, -1.00000, 0.15625, -1.00000, -0.50000, 0.75000, 0.37500, 0.90625, -0.18750, 0.96875, -1.00000, -0.40625, 0.96875, -1.00000, -0.62500, 0.96875, -1.00000, -0.03125, 0.96875, 0.62500, -1.00000, -1.00000, -0.37500, -1.00000, -1.00000, 0.78125, 0.96875, 0.65625};

#endif

#endif
